{
    "layers": [
        {
            "out_depth": 1,
            "out_sx": 24,
            "out_sy": 24,
            "layer_type": "input"
        },
        {
            "sx": 5,
            "sy": 5,
            "stride": 1,
            "in_depth": 1,
            "out_depth": 8,
            "out_sx": 24,
            "out_sy": 24,
            "layer_type": "conv",
            "l1_decay_mul": 0,
            "l2_decay_mul": 1,
            "pad": 2,
            "filters": [
                {
                    "sx": 5,
                    "sy": 5,
                    "depth": 1,
                    "w": {
                        "0": -0.0034946897675748063,
                        "1": -0.18268246403679697,
                        "2": -0.3885762484643625,
                        "3": -0.20548096194528762,
                        "4": -0.18205278042330014,
                        "5": -0.05074982619833334,
                        "6": 0.20207890199487752,
                        "7": 0.13347812579988882,
                        "8": -0.19392237289431274,
                        "9": -0.40634822450512953,
                        "10": 0.13525655113634508,
                        "11": 0.4893333188691927,
                        "12": 0.1460816396196737,
                        "13": 0.4704433380361829,
                        "14": -0.10674125928492303,
                        "15": -0.20449466660247312,
                        "16": 0.4169946165188422,
                        "17": 0.40660230347724124,
                        "18": 0.5200672454641788,
                        "19": 0.293893982536882,
                        "20": 0.05452434357392614,
                        "21": 0.10462214100449163,
                        "22": -0.060596316840394265,
                        "23": 0.022930440972026775,
                        "24": -0.27108325019681245
                    }
                },
                {
                    "sx": 5,
                    "sy": 5,
                    "depth": 1,
                    "w": {
                        "0": -0.06975734617141102,
                        "1": 0.6676630056693428,
                        "2": -0.048284066904552884,
                        "3": 0.3626158207309415,
                        "4": -0.22404552378999268,
                        "5": 0.2044953155957419,
                        "6": 0.1932407003842725,
                        "7": -0.09699395669788788,
                        "8": -0.27712184953337987,
                        "9": -0.044477868919223125,
                        "10": 0.15611024967011697,
                        "11": 0.4429726445458324,
                        "12": 0.18919582105035174,
                        "13": -0.12676713008182572,
                        "14": -0.32570242239985037,
                        "15": 0.2645058340739616,
                        "16": 0.1885081199352187,
                        "17": -0.15405556913038498,
                        "18": -0.17892307430247648,
                        "19": -0.2513318942158936,
                        "20": 0.07732555141325988,
                        "21": 0.3760503442765984,
                        "22": -0.15805277024501935,
                        "23": -0.1828175875404321,
                        "24": -0.2441623547897089
                    }
                },
                {
                    "sx": 5,
                    "sy": 5,
                    "depth": 1,
                    "w": {
                        "0": -0.14551235940098073,
                        "1": 0.3724406487653784,
                        "2": 0.09879065814640829,
                        "3": 0.2576940982602569,
                        "4": 0.3526181945270311,
                        "5": 0.4262466618099106,
                        "6": 0.18590345280594842,
                        "7": 0.08369105216975672,
                        "8": 0.23578160344287621,
                        "9": 0.285478120346426,
                        "10": -0.28069089268523467,
                        "11": -0.026369102813146285,
                        "12": -0.4806521039383047,
                        "13": -0.027369949813884454,
                        "14": 0.20000273792395457,
                        "15": -0.6098184832777773,
                        "16": 0.09983392413628084,
                        "17": -0.35496415318672864,
                        "18": -0.06257018934985936,
                        "19": 0.3760770146089154,
                        "20": -0.7045948904513775,
                        "21": -0.3994357562372537,
                        "22": -0.22120346517882092,
                        "23": -0.11773277905049179,
                        "24": -0.06990155703070741
                    }
                },
                {
                    "sx": 5,
                    "sy": 5,
                    "depth": 1,
                    "w": {
                        "0": 0.07002793752881392,
                        "1": 0.08829603617676712,
                        "2": -0.20314164357443704,
                        "3": -0.21589019403623597,
                        "4": 0.18462033620556523,
                        "5": 0.12529073919865996,
                        "6": -0.0991022661404721,
                        "7": -0.09013476472150483,
                        "8": -0.23955571120013866,
                        "9": -0.011979467082099203,
                        "10": 0.07659391751085035,
                        "11": 0.20049678220973757,
                        "12": -0.6707539646279557,
                        "13": -0.08455304611612041,
                        "14": -0.12268109029907086,
                        "15": 0.19695153386869763,
                        "16": 0.10220292961144332,
                        "17": 0.0045357775208407225,
                        "18": -0.23554619165559665,
                        "19": -0.5043182412955886,
                        "20": 0.4681665084499034,
                        "21": 0.14585366409946904,
                        "22": 0.24861098544518906,
                        "23": -0.4240881241960792,
                        "24": -0.22438292601278562
                    }
                },
                {
                    "sx": 5,
                    "sy": 5,
                    "depth": 1,
                    "w": {
                        "0": -0.02402746583925558,
                        "1": 0.06662349081319502,
                        "2": -0.05521406352923598,
                        "3": 0.22139408792828133,
                        "4": -0.5612814376936647,
                        "5": 0.12401571249516456,
                        "6": 0.628039335792485,
                        "7": 0.5367164408572809,
                        "8": 0.17567382468812498,
                        "9": -0.16432026429061583,
                        "10": 0.52063929066615,
                        "11": -0.10375142877166048,
                        "12": 0.38255077093552314,
                        "13": 0.5729014741754119,
                        "14": 0.3302580822164218,
                        "15": 0.1926214968672761,
                        "16": -0.2002165472646526,
                        "17": -0.2963562807853926,
                        "18": 0.4641831531758156,
                        "19": 0.5069942994108181,
                        "20": -0.2093391099001382,
                        "21": -0.3453079539827558,
                        "22": -0.13047655258199337,
                        "23": -0.42732685655126984,
                        "24": -0.23172366135505112
                    }
                },
                {
                    "sx": 5,
                    "sy": 5,
                    "depth": 1,
                    "w": {
                        "0": 0.1366619292495073,
                        "1": 0.08859952252470217,
                        "2": -0.10526406127115304,
                        "3": 0.2245804158351645,
                        "4": 0.2532114185853225,
                        "5": 0.18265654141103682,
                        "6": 0.07441910254506288,
                        "7": -0.39886157142894507,
                        "8": -0.26113956546176403,
                        "9": 0.01180494719365302,
                        "10": -0.126506243992584,
                        "11": 0.08764951069040398,
                        "12": -0.14814611717580556,
                        "13": -0.21942911238705973,
                        "14": -0.6095125741698085,
                        "15": -0.004594334283109951,
                        "16": -0.33346649595938443,
                        "17": -0.3575725757473171,
                        "18": 0.015665492691123783,
                        "19": -0.1556572832853372,
                        "20": -0.18047868406304468,
                        "21": -0.13425643384550487,
                        "22": -0.13348207441446905,
                        "23": -0.02773414302404881,
                        "24": 0.2708570198164386
                    }
                },
                {
                    "sx": 5,
                    "sy": 5,
                    "depth": 1,
                    "w": {
                        "0": -0.15591240201338405,
                        "1": -0.048745198956982934,
                        "2": -0.2991283641555763,
                        "3": 0.3655411067950016,
                        "4": 0.10810051675162291,
                        "5": -0.31639285154329155,
                        "6": -0.081769508882017,
                        "7": 0.7366007117678127,
                        "8": 0.44366441571535326,
                        "9": 0.4785639313927297,
                        "10": 0.2030328255996121,
                        "11": 0.36291749959906244,
                        "12": 0.5668287953259183,
                        "13": 0.238490698438325,
                        "14": 0.48104577197035514,
                        "15": 0.4720283240944403,
                        "16": 0.31407718627037545,
                        "17": -0.08350251927045922,
                        "18": -0.05027512138810434,
                        "19": -0.34890354617454544,
                        "20": -0.06988500083273048,
                        "21": 0.14587036732399497,
                        "22": -0.39704484754939495,
                        "23": -0.18955306446512746,
                        "24": -0.10636871511787821
                    }
                },
                {
                    "sx": 5,
                    "sy": 5,
                    "depth": 1,
                    "w": {
                        "0": -0.1438764389595832,
                        "1": 0.14806267607325846,
                        "2": -0.0820437926521632,
                        "3": -0.02242631632072803,
                        "4": -0.23434336786790116,
                        "5": 0.12370185137042371,
                        "6": 0.5950276806531529,
                        "7": -0.04799227170425764,
                        "8": -0.31534508305553555,
                        "9": -0.43962087525258714,
                        "10": 0.07495850319572299,
                        "11": 0.3889645788804336,
                        "12": -0.02043029666232392,
                        "13": -0.315170795277288,
                        "14": 0.032382491061573884,
                        "15": 0.47306596479635243,
                        "16": 0.17867899480931068,
                        "17": 0.37424256837587533,
                        "18": 0.23370226198491043,
                        "19": -0.1333079887688829,
                        "20": 0.10507267342199768,
                        "21": 0.12213277095758283,
                        "22": 0.4581486718157724,
                        "23": 0.015405980109154465,
                        "24": -0.10547961285502215
                    }
                }
            ],
            "biases": {
                "sx": 1,
                "sy": 1,
                "depth": 8,
                "w": {
                    "0": 0.014263193397992747,
                    "1": -0.08754545157166575,
                    "2": 0.1265014282372388,
                    "3": 0.16567871461392725,
                    "4": -0.016871416599218595,
                    "5": 0.2644641396861722,
                    "6": -0.08333688710564267,
                    "7": -0.03434475906510364
                }
            }
        },
        {
            "out_depth": 8,
            "out_sx": 24,
            "out_sy": 24,
            "layer_type": "relu"
        },
        {
            "sx": 2,
            "sy": 2,
            "stride": 2,
            "in_depth": 8,
            "out_depth": 8,
            "out_sx": 12,
            "out_sy": 12,
            "layer_type": "pool",
            "pad": 0
        },
        {
            "sx": 5,
            "sy": 5,
            "stride": 1,
            "in_depth": 8,
            "out_depth": 16,
            "out_sx": 12,
            "out_sy": 12,
            "layer_type": "conv",
            "l1_decay_mul": 0,
            "l2_decay_mul": 1,
            "pad": 2,
            "filters": [
                {
                    "sx": 5,
                    "sy": 5,
                    "depth": 8,
                    "w": {
                        "0": -0.038456169643818115,
                        "1": -0.18831476623671145,
                        "2": 0.20157029289346684,
                        "3": 0.0740066788645382,
                        "4": 0.03154229338609923,
                        "5": -0.13613507269915562,
                        "6": -0.03788923096449996,
                        "7": -0.21268239076062176,
                        "8": 0.006059498173398275,
                        "9": 0.08104681220129546,
                        "10": -0.18484046208013719,
                        "11": 0.09219997344349093,
                        "12": -0.04826892183353833,
                        "13": -0.10135769690566522,
                        "14": 0.019152310773903947,
                        "15": 0.018658201923786158,
                        "16": -0.063885411948595,
                        "17": 0.015000643094749935,
                        "18": -0.17432455786620227,
                        "19": 0.12383109015587693,
                        "20": 0.04730244201898014,
                        "21": -0.12458198638678299,
                        "22": 0.03686979314192236,
                        "23": 0.0008516456416435966,
                        "24": -0.09630794003720633,
                        "25": -0.2538574975270817,
                        "26": 0.10167466751915623,
                        "27": -0.023127172067260525,
                        "28": 0.013097253492508894,
                        "29": -0.10655384657981393,
                        "30": -0.0470413900693936,
                        "31": -0.20343862890278228,
                        "32": 0.06966381570109069,
                        "33": 0.012047478012704624,
                        "34": 0.13258949209407497,
                        "35": 0.050875090487905256,
                        "36": -0.07407759537238484,
                        "37": -0.010607347661269546,
                        "38": -0.030742556945651353,
                        "39": -0.009540094722720553,
                        "40": -0.21203665316839823,
                        "41": -0.19457598271474943,
                        "42": 0.2721801295417175,
                        "43": 0.03720833962284325,
                        "44": -0.027055371647574475,
                        "45": -0.08381834362343324,
                        "46": 0.0004864987502096038,
                        "47": -0.10521052393260716,
                        "48": 0.07443497542380355,
                        "49": 0.003376100387652416,
                        "50": -0.005637607766397737,
                        "51": 0.1914576057003211,
                        "52": 0.028089333228396313,
                        "53": -0.18014587412941704,
                        "54": -0.0987473274547662,
                        "55": 0.08370107796284343,
                        "56": 0.0639252079215214,
                        "57": 0.15560550056653477,
                        "58": -0.15378130680524332,
                        "59": 0.14033533459584932,
                        "60": -0.04826183170609185,
                        "61": -0.07184281567475355,
                        "62": -0.12281290713289753,
                        "63": -0.012302593842447902,
                        "64": -0.06417862428290994,
                        "65": -0.10107783852372826,
                        "66": -0.1317785992171168,
                        "67": -0.10112330591484403,
                        "68": -0.1647113117290494,
                        "69": -0.18436240306633958,
                        "70": 0.0526683890703288,
                        "71": -0.11917819091550538,
                        "72": -0.10221761302649686,
                        "73": 0.08427012350379189,
                        "74": 0.03812056878476445,
                        "75": -0.08409166846594775,
                        "76": 0.12298611014782883,
                        "77": 0.10440128322168436,
                        "78": -0.028078313253734898,
                        "79": -0.07839560660468313,
                        "80": 0.06559779606112819,
                        "81": -0.0552049965803469,
                        "82": 0.16407047490301643,
                        "83": 0.13898943524177448,
                        "84": -0.05681623198199653,
                        "85": 0.08625995340676147,
                        "86": 0.04772718493438305,
                        "87": 0.010589065124563484,
                        "88": 0.11751125956229189,
                        "89": -0.007138452044320464,
                        "90": 0.11548920773500257,
                        "91": 0.021447868814850248,
                        "92": 0.10352156795974164,
                        "93": -0.0966866448307248,
                        "94": 0.13953113515555912,
                        "95": 0.0024377860364013498,
                        "96": -0.027685682171030294,
                        "97": 0.03373833803892143,
                        "98": 0.08267624035640632,
                        "99": -0.01081173997440388,
                        "100": 0.031445188816173704,
                        "101": -0.1614303470174793,
                        "102": -0.042655361939205216,
                        "103": 0.0686659113542182,
                        "104": 0.13491145028831233,
                        "105": -0.009899513581091327,
                        "106": 0.07260864282782904,
                        "107": -0.06316646290322915,
                        "108": -0.12261646675222203,
                        "109": 0.05059420165076997,
                        "110": 0.11345709539487339,
                        "111": -0.09747215015399117,
                        "112": -0.13009572130554156,
                        "113": -0.11976265957429952,
                        "114": 0.13970032742823113,
                        "115": 0.006420381613356488,
                        "116": 0.13296712164561025,
                        "117": -0.0072677788794781465,
                        "118": 0.030145533214456587,
                        "119": 0.008186092552514578,
                        "120": 0.05119908681450395,
                        "121": -0.032551335070372056,
                        "122": -0.042347362963164055,
                        "123": 0.11632267654362116,
                        "124": 0.035536510722691726,
                        "125": -0.05339205842764667,
                        "126": 0.028319338610186852,
                        "127": -0.06169614458798588,
                        "128": -0.09007589090456133,
                        "129": 0.06837941012728738,
                        "130": 0.05241459644466508,
                        "131": 0.011348678658318428,
                        "132": 0.022766422188402885,
                        "133": 0.11167984811699277,
                        "134": -0.1652322717703674,
                        "135": 0.03925797019248154,
                        "136": -0.1233733098850796,
                        "137": -0.05669816368750247,
                        "138": -0.012719002739160993,
                        "139": -0.15422109867159733,
                        "140": -0.04433199479580066,
                        "141": 0.14226005052357946,
                        "142": 0.049249361003795566,
                        "143": -0.05275844711888781,
                        "144": -0.2744983622493959,
                        "145": -0.09858475773008449,
                        "146": -0.005572804887327941,
                        "147": -0.21092174382793047,
                        "148": -0.06478357299997962,
                        "149": 0.0678643820107726,
                        "150": -0.17487646900475806,
                        "151": -0.17768404014969458,
                        "152": -0.12990359470150484,
                        "153": -0.09261647975733646,
                        "154": -0.03737692682534102,
                        "155": -0.04731849273349112,
                        "156": -0.15134717782691112,
                        "157": 0.13414362559021367,
                        "158": 0.03755933794140815,
                        "159": -0.12368248199813214,
                        "160": 0.065450824623499,
                        "161": 0.12970889260250057,
                        "162": 0.04175894084640644,
                        "163": -0.0131378496601767,
                        "164": -0.0594739511464162,
                        "165": 0.08008890678747371,
                        "166": 0.041864910346349524,
                        "167": 0.06574090873343301,
                        "168": -0.11644454592169834,
                        "169": -0.15984154595459812,
                        "170": -0.14613941538482275,
                        "171": 0.04455055450720275,
                        "172": 0.015978568044974203,
                        "173": 0.052567898639181744,
                        "174": 0.07147184603745074,
                        "175": -0.036292799055378536,
                        "176": -0.03817637802796397,
                        "177": -0.1559434079203727,
                        "178": 0.040791559814154145,
                        "179": -0.13759764249975323,
                        "180": -0.11469835886086499,
                        "181": -0.01047519600608532,
                        "182": -0.14343119529647963,
                        "183": -0.1048544055756311,
                        "184": -0.0593157781435752,
                        "185": -0.06863264156731361,
                        "186": -0.08316597038666201,
                        "187": -0.012452127963170072,
                        "188": 0.021810901462735215,
                        "189": -0.05032063337354388,
                        "190": -0.07830952360129466,
                        "191": -0.0901147455101097,
                        "192": 0.12691756811408955,
                        "193": -0.12814557516745917,
                        "194": -0.013917795528074362,
                        "195": -0.07307498073208243,
                        "196": -0.14427707338029958,
                        "197": -0.08524673635312116,
                        "198": 0.0556952752467615,
                        "199": 0.1257007472519745
                    }
                },
                {
                    "sx": 5,
                    "sy": 5,
                    "depth": 8,
                    "w": {
                        "0": -0.00021313018487863558,
                        "1": 0.1407765089936332,
                        "2": -0.13485598472318472,
                        "3": 0.10131204903659477,
                        "4": 0.13156309961012497,
                        "5": -0.15524482235328146,
                        "6": -0.017200727606123838,
                        "7": 0.0056147578505357666,
                        "8": -0.046680102009504204,
                        "9": 0.12437603129049246,
                        "10": -0.22896674188377875,
                        "11": 0.05804677443789704,
                        "12": 0.024898645216301946,
                        "13": 0.04360111845356841,
                        "14": 0.08446353203488437,
                        "15": 0.11955940922318524,
                        "16": -0.11811295772342043,
                        "17": -0.0791346314912529,
                        "18": 0.11695252162681523,
                        "19": -0.11276363729887129,
                        "20": -0.00322844381631895,
                        "21": 0.00884177642973052,
                        "22": -0.08805040103712272,
                        "23": -0.04707445283379387,
                        "24": 0.04671720718241459,
                        "25": -0.06598229192382558,
                        "26": -0.07385263656528529,
                        "27": -0.1131950434855375,
                        "28": 0.09534624535895476,
                        "29": -0.12331484048360344,
                        "30": 0.08736546737358425,
                        "31": -0.06414064588833014,
                        "32": -0.04543945488307035,
                        "33": 0.15946261421582772,
                        "34": -0.3341923866716774,
                        "35": 0.07538526947298281,
                        "36": 0.06734159127947119,
                        "37": -0.07881747449678189,
                        "38": 0.17514587324718822,
                        "39": 0.05999685432783053,
                        "40": 0.04985134959489119,
                        "41": 0.18844270633380014,
                        "42": -0.23445396484752704,
                        "43": 0.2184383506596419,
                        "44": 0.09621174626216461,
                        "45": -0.13395209920593149,
                        "46": 0.08737955234417914,
                        "47": 0.06926496977268577,
                        "48": -0.2118040036849894,
                        "49": 0.13374017911313213,
                        "50": -0.02674164988706081,
                        "51": 0.05202804203468824,
                        "52": -0.030896088297863375,
                        "53": 0.03015700099948939,
                        "54": -0.029864361361525267,
                        "55": -0.15650574611639811,
                        "56": -0.19083628498050093,
                        "57": -0.24206939993446364,
                        "58": 0.11628286748248444,
                        "59": -0.10909770865270214,
                        "60": 0.07643370727655581,
                        "61": -0.0702021299113746,
                        "62": -0.045403260372160685,
                        "63": -0.1766698438193815,
                        "64": 0.08143829183059605,
                        "65": 0.19106058123413178,
                        "66": -0.013026820445320521,
                        "67": -0.05964842773115951,
                        "68": -0.013793033246723872,
                        "69": -0.08953368131020059,
                        "70": 0.08083311193451155,
                        "71": 0.0803353630653645,
                        "72": 0.0788007108811619,
                        "73": 0.26442075829712297,
                        "74": -0.41556358878394883,
                        "75": 0.14520817269568564,
                        "76": 0.05259481810294945,
                        "77": -0.03856870344860181,
                        "78": -0.059358990162087406,
                        "79": 0.1710026663863676,
                        "80": -0.2178830749307813,
                        "81": 0.011975508851866483,
                        "82": -0.14354284615428248,
                        "83": 0.13106591313481086,
                        "84": -0.0407607494061798,
                        "85": 0.04509105991551678,
                        "86": 0.032849631075108056,
                        "87": 0.07212730352896929,
                        "88": -0.23924280587162078,
                        "89": 0.018964783979786678,
                        "90": 0.0941673687639242,
                        "91": -0.05762300739072143,
                        "92": -0.22217675501773607,
                        "93": -0.06018171417533442,
                        "94": -0.178856685011364,
                        "95": -0.2190988100516215,
                        "96": 0.09156028406578638,
                        "97": -0.09755752224612965,
                        "98": 0.13711082524689872,
                        "99": 0.06167815293035462,
                        "100": -0.07849032895769845,
                        "101": -0.09487953867959721,
                        "102": -0.008474872833436653,
                        "103": -0.1747268741857932,
                        "104": 0.2093134951684763,
                        "105": 0.14333745867611047,
                        "106": -0.1635767645971443,
                        "107": 0.2246192066645102,
                        "108": -0.0499916235490766,
                        "109": -0.21743514633874883,
                        "110": 0.06481769159661954,
                        "111": 0.1486954846609355,
                        "112": 0.0444808534705183,
                        "113": 0.3749047480038817,
                        "114": -0.2587283713743666,
                        "115": 0.24083927812415284,
                        "116": -0.1169724258612146,
                        "117": -0.01841850998189147,
                        "118": -0.13425510685061456,
                        "119": 0.21389323735882265,
                        "120": -0.08158908846238543,
                        "121": 0.028847333330013308,
                        "122": -0.20511148835434,
                        "123": 0.13955742292368445,
                        "124": -0.2635739353316708,
                        "125": 0.007070147537358391,
                        "126": -0.1887447587685979,
                        "127": -0.12532738993977602,
                        "128": -0.2265071063447674,
                        "129": -0.2301847931284511,
                        "130": -0.03674372882242092,
                        "131": -0.004018724462950496,
                        "132": -0.19345859654749967,
                        "133": -0.1852131121660216,
                        "134": -0.10916155166661022,
                        "135": -0.3274873038982863,
                        "136": -0.08886921844006555,
                        "137": 0.09352859417462846,
                        "138": 0.2871800890365201,
                        "139": -0.038768972711291406,
                        "140": -0.005988378991516073,
                        "141": -0.09524282631987631,
                        "142": 0.02324849917023692,
                        "143": -0.03618048928510345,
                        "144": 0.09488005366514703,
                        "145": 0.2586331644934141,
                        "146": -0.19929766876736718,
                        "147": 0.0460062092878282,
                        "148": 0.08352674665912248,
                        "149": 0.022826859422015667,
                        "150": 0.01138775207765317,
                        "151": 0.19677819387586526,
                        "152": 0.025574977172593046,
                        "153": 0.16269185055065444,
                        "154": -0.21499831888915585,
                        "155": 0.14355648537139318,
                        "156": -0.1123659874516421,
                        "157": 0.007263833039445242,
                        "158": 0.0017221674194077793,
                        "159": 0.063190420608997,
                        "160": -0.016929461337910633,
                        "161": -0.16119198088137393,
                        "162": -0.1908833921278419,
                        "163": -0.01423713882907247,
                        "164": -0.2391954530393705,
                        "165": 0.06245075174134198,
                        "166": -0.3045280747721561,
                        "167": -0.07546319646465903,
                        "168": -0.02599107165407817,
                        "169": -0.1411365155908682,
                        "170": -0.02904091868532527,
                        "171": -0.03732575680158647,
                        "172": -0.1793302740668731,
                        "173": -0.13083522453492763,
                        "174": -0.049769665233383276,
                        "175": -0.12677832576227,
                        "176": 0.03376588592217109,
                        "177": 0.03309211792807721,
                        "178": -0.010230773659879212,
                        "179": -0.0007596926306195724,
                        "180": -0.1001127128372167,
                        "181": -0.08738289949611766,
                        "182": 0.20824843515257432,
                        "183": 0.040622476431048715,
                        "184": 0.1754112954624257,
                        "185": 0.19874877214075942,
                        "186": -0.3011509707735738,
                        "187": 0.06156661575885808,
                        "188": 0.05166824632702164,
                        "189": 0.050097134343662246,
                        "190": -0.007971885578011949,
                        "191": 0.10186858835174356,
                        "192": -0.04257104074917027,
                        "193": 0.019936231762906535,
                        "194": -0.28326554999108977,
                        "195": 0.07114517019555372,
                        "196": -0.0548052567539367,
                        "197": 0.05641878359142951,
                        "198": -0.21454742997134363,
                        "199": 0.01546524346184723
                    }
                },
                {
                    "sx": 5,
                    "sy": 5,
                    "depth": 8,
                    "w": {
                        "0": 0.018123956147254986,
                        "1": 0.1424518877180678,
                        "2": 0.06726454533647672,
                        "3": -0.14323379740782521,
                        "4": 0.4293153853804773,
                        "5": 0.049554332198770326,
                        "6": 0.27945060584245857,
                        "7": 0.24157208646923656,
                        "8": -0.10404034124625837,
                        "9": 0.15630095398615598,
                        "10": 0.028883659556413872,
                        "11": -0.022048108221771476,
                        "12": 0.07347066851036331,
                        "13": 0.0743254769718606,
                        "14": -0.14538796551424982,
                        "15": 0.007734877693344175,
                        "16": -0.06350645130170608,
                        "17": -0.15379854375814894,
                        "18": -0.09154199005076864,
                        "19": -0.027547369006775325,
                        "20": -0.17556279951872727,
                        "21": 0.07492016491536033,
                        "22": -0.14896267542357824,
                        "23": -0.19504514357337427,
                        "24": -0.17628431452329438,
                        "25": -0.16573276706026605,
                        "26": 0.00791779064216861,
                        "27": -0.16743880378148232,
                        "28": 0.002146925653415987,
                        "29": 0.01696150963218893,
                        "30": -0.07491268597193185,
                        "31": -0.04224927186579258,
                        "32": -0.16860254251801976,
                        "33": -0.15030316369115462,
                        "34": -0.053485337046212895,
                        "35": 0.0960151937899491,
                        "36": -0.0651579815077761,
                        "37": -0.009565730137072776,
                        "38": -0.20062759878335512,
                        "39": -0.13285221641910935,
                        "40": -0.20801846101637833,
                        "41": 0.09305774346082671,
                        "42": 0.212123542514304,
                        "43": 0.015098020480506319,
                        "44": 0.06824214885067095,
                        "45": 0.10630511732135416,
                        "46": -0.1971067353018367,
                        "47": -0.24784037245541535,
                        "48": -0.10015676485999005,
                        "49": -0.09272814246373424,
                        "50": 0.07535075496773848,
                        "51": -0.18308600898719318,
                        "52": -0.06028224507859558,
                        "53": 0.10228992052107007,
                        "54": -0.17999596768255283,
                        "55": 0.02011542903082703,
                        "56": 0.09328042815173823,
                        "57": -0.13865728785450301,
                        "58": 0.005973811823049644,
                        "59": 0.09145661029654736,
                        "60": -0.08242765320036508,
                        "61": 0.09474949244480799,
                        "62": -0.10157448782098573,
                        "63": 0.0676203224597078,
                        "64": 0.18521322513542768,
                        "65": -0.14046992220543,
                        "66": -0.11821362715168646,
                        "67": -0.13693841568905749,
                        "68": -0.022398152171746663,
                        "69": -0.03772298736401311,
                        "70": -0.17532828090885472,
                        "71": 0.04736412757366782,
                        "72": 0.15862036116506684,
                        "73": -0.038858367061898845,
                        "74": -0.22376810346095666,
                        "75": -0.007482952141631953,
                        "76": -0.07516550978443262,
                        "77": 0.0016258624112613198,
                        "78": -0.022171234664787726,
                        "79": 0.15463118138833165,
                        "80": 0.03780419761953781,
                        "81": -0.2881170099223718,
                        "82": -0.21121035283745354,
                        "83": -0.023768249690272778,
                        "84": -0.24549843051218856,
                        "85": 0.0320458784064463,
                        "86": -0.08784915328818178,
                        "87": 0.014884280397695814,
                        "88": -0.1284781954557037,
                        "89": -0.021787852563206825,
                        "90": -0.07483129416167081,
                        "91": 0.04259906433482251,
                        "92": -0.130963455527149,
                        "93": -0.11023242942578963,
                        "94": -0.2025849252606175,
                        "95": -0.04699233075338911,
                        "96": -0.07192887385407644,
                        "97": -0.06353947229589371,
                        "98": 0.08245038264436849,
                        "99": -0.07702285432942557,
                        "100": 0.07437330438851836,
                        "101": -0.011801923925718102,
                        "102": 0.06560661702848507,
                        "103": -0.1418660066608838,
                        "104": 0.08418464348338646,
                        "105": -0.1556589795208398,
                        "106": 0.26830748504722335,
                        "107": -0.12742123685882498,
                        "108": 0.21688141570604014,
                        "109": -0.19110688158724193,
                        "110": 0.19852820891574985,
                        "111": -0.04166865012071307,
                        "112": 0.27532674246350475,
                        "113": 0.07884926238168323,
                        "114": -0.018721966182039928,
                        "115": -0.21094726023191324,
                        "116": 0.32500269823527195,
                        "117": -0.2196676865916472,
                        "118": 0.18957614419725863,
                        "119": 0.1940052198774329,
                        "120": 0.1877339337087859,
                        "121": -0.0722723426411859,
                        "122": -0.2165755824637017,
                        "123": -0.08513241377820098,
                        "124": -0.07976656168056613,
                        "125": -0.09099507175425083,
                        "126": 0.047491440459968205,
                        "127": 0.04552418826649802,
                        "128": -0.08332031729514694,
                        "129": -0.04083597166640589,
                        "130": -0.05575555412437998,
                        "131": -0.031962826395426906,
                        "132": -0.06577927011193851,
                        "133": -0.05031790271529813,
                        "134": -0.07044379881767458,
                        "135": -0.053252429158011254,
                        "136": -0.22281148871211393,
                        "137": -0.06985455650174978,
                        "138": 0.017038962012932715,
                        "139": 0.1977364327804987,
                        "140": -0.07274655043795682,
                        "141": 0.09448587062505726,
                        "142": 0.0206762226352457,
                        "143": 0.046412054913809855,
                        "144": -0.24173381668526003,
                        "145": -0.07094602324065409,
                        "146": 0.1789078065349954,
                        "147": 0.11702728855012683,
                        "148": -0.1475865225018478,
                        "149": -0.045541771470349254,
                        "150": 0.008734944474813322,
                        "151": -0.19859179431083368,
                        "152": -0.1995386347225033,
                        "153": -0.07758364661731033,
                        "154": 0.2382643635410173,
                        "155": -0.1367494761673377,
                        "156": -0.023420966304297262,
                        "157": 0.09273881880902342,
                        "158": 0.15008660349133182,
                        "159": -0.2795714508653028,
                        "160": 0.023066280530671866,
                        "161": 0.03505847925097845,
                        "162": 0.2366648708075041,
                        "163": 0.01446067804477779,
                        "164": 0.24740213981220774,
                        "165": 0.05496521044579555,
                        "166": 0.025484630376715743,
                        "167": -0.047911822451364314,
                        "168": 0.057465475755494745,
                        "169": -0.08406510048565355,
                        "170": 0.25060671660670697,
                        "171": -0.09345806789806814,
                        "172": 0.26265118557957684,
                        "173": 0.07193313093989182,
                        "174": -0.1088235363320308,
                        "175": -0.09978044599087181,
                        "176": 0.1657947888350325,
                        "177": -0.02810369630137263,
                        "178": -0.07534395041501753,
                        "179": -0.026374470838510123,
                        "180": -0.07745244900914454,
                        "181": 0.1469118623821788,
                        "182": -0.24355555936032425,
                        "183": -0.06239582210463377,
                        "184": 0.12482898875375117,
                        "185": -0.07053653585384005,
                        "186": -0.18934558083470018,
                        "187": 0.11791352447759154,
                        "188": -0.3009108702279098,
                        "189": -0.0780141063445188,
                        "190": -0.15101833115149355,
                        "191": 0.07068953708282139,
                        "192": 0.13977005557904357,
                        "193": -0.00264337810173668,
                        "194": 0.014536076456532055,
                        "195": 0.07046955902572354,
                        "196": -0.21075816107314524,
                        "197": -0.05606423743079571,
                        "198": -0.0675962610968085,
                        "199": -0.008009814842381923
                    }
                },
                {
                    "sx": 5,
                    "sy": 5,
                    "depth": 8,
                    "w": {
                        "0": 0.11900221609591405,
                        "1": -0.022358281661178956,
                        "2": -0.14945509308775418,
                        "3": -0.08072792665089043,
                        "4": -0.04237457254008023,
                        "5": -0.05797215404847831,
                        "6": -0.0601970684426135,
                        "7": 0.03444023603635628,
                        "8": 0.02497754521207632,
                        "9": -0.024420730944447338,
                        "10": -0.1614104938664503,
                        "11": 0.05456559530285422,
                        "12": -0.012921898460689226,
                        "13": -0.17133905356100804,
                        "14": 0.07334387602834326,
                        "15": -0.2382095936736667,
                        "16": -0.00010225144838275826,
                        "17": 0.05033041285066432,
                        "18": 0.05036653019579268,
                        "19": 0.04442231049211141,
                        "20": 0.014954051808702674,
                        "21": -0.17586926538842695,
                        "22": 0.20951732428651193,
                        "23": -0.024952487929025647,
                        "24": -0.03423263754512076,
                        "25": 0.09188138777497382,
                        "26": 0.11247646685559784,
                        "27": -0.1561224282039263,
                        "28": 0.02895534469588151,
                        "29": -0.01480100519488277,
                        "30": -0.01854463359432313,
                        "31": 0.00633820217591703,
                        "32": 0.041380225240095214,
                        "33": 0.03823613022782469,
                        "34": 0.02570496795611837,
                        "35": -0.21632176367583233,
                        "36": 0.0635656272946987,
                        "37": 0.08363305524968453,
                        "38": -0.08149574255153733,
                        "39": 0.04212485179281574,
                        "40": 0.05730855781378022,
                        "41": 0.11994378469654614,
                        "42": 0.1404015013172613,
                        "43": 0.011103182824534673,
                        "44": 0.27756766297984115,
                        "45": 0.009360952899575949,
                        "46": 0.164839136429348,
                        "47": 0.04503008036212243,
                        "48": 0.08299363552107852,
                        "49": 0.04407996107150659,
                        "50": 0.17508188384282336,
                        "51": -0.09634587400295298,
                        "52": 0.13533929855740015,
                        "53": -0.024812580123687183,
                        "54": 0.14298015206782794,
                        "55": 0.021579431110076937,
                        "56": 0.055339416116945817,
                        "57": -0.001573571971585671,
                        "58": 0.04161111347463476,
                        "59": -0.09968872061702228,
                        "60": 0.04119572151080191,
                        "61": -0.11020812483441705,
                        "62": 0.07815393564256248,
                        "63": 0.040969575014083,
                        "64": 0.053859852893310994,
                        "65": 0.10502660051775269,
                        "66": 0.007357904127987492,
                        "67": -0.04264022312984114,
                        "68": 0.1344165285588174,
                        "69": -0.1056274439317405,
                        "70": -0.021346191776649214,
                        "71": 0.094285778587532,
                        "72": 0.12406829410032796,
                        "73": 0.015182920778504192,
                        "74": 0.10998771976064697,
                        "75": -0.2477784867401499,
                        "76": 0.24849836733121777,
                        "77": -0.1654337152208125,
                        "78": 0.14422270022907765,
                        "79": 0.03792715050836759,
                        "80": -0.14933683619470647,
                        "81": -0.05079336831062607,
                        "82": 0.021380291561479685,
                        "83": 0.14129022635287206,
                        "84": -0.07400702277539903,
                        "85": 0.11655858727831839,
                        "86": -0.021164479065531656,
                        "87": -0.023437752732292625,
                        "88": -0.1757004653644939,
                        "89": -0.007689311740475582,
                        "90": 0.1969866764088496,
                        "91": -0.1695474585647347,
                        "92": -0.09020037949846214,
                        "93": -0.012339651065568339,
                        "94": -0.14273463158493632,
                        "95": -0.12239548810178931,
                        "96": -0.011061498764355329,
                        "97": -0.0076987443394151,
                        "98": 0.06094469352754229,
                        "99": 0.011528510869196817,
                        "100": 0.0020892032117416763,
                        "101": -0.18543105023625212,
                        "102": -0.08840783705373567,
                        "103": -0.17866069440685337,
                        "104": -0.1192527115253151,
                        "105": 0.0080154773765321,
                        "106": 0.014977463628216064,
                        "107": 0.13602479888854846,
                        "108": 0.04016521263699428,
                        "109": -0.046944713993238824,
                        "110": 0.049755520138069165,
                        "111": -0.14710422916732122,
                        "112": -0.07616309012840529,
                        "113": -0.11620389050045953,
                        "114": 0.23108089283027863,
                        "115": 0.03911863096735244,
                        "116": 0.16995948715142384,
                        "117": -0.0688422248378085,
                        "118": 0.14519126338339647,
                        "119": -0.1798406191935684,
                        "120": 0.02168793713087663,
                        "121": -0.17356251242422457,
                        "122": -0.048140330020882124,
                        "123": 0.14815228496097088,
                        "124": -0.14861942717844143,
                        "125": -0.0833078919834201,
                        "126": -0.18635873099958056,
                        "127": 0.03802505218349465,
                        "128": -0.09303315898497691,
                        "129": -0.18436191927233905,
                        "130": -0.07261204878189806,
                        "131": 0.1827734818271385,
                        "132": -0.1165099993093872,
                        "133": 0.023853077181429642,
                        "134": -0.0774327837009383,
                        "135": -0.013662246526584041,
                        "136": -0.16927952597619902,
                        "137": -0.0604010676444368,
                        "138": 0.02595585921467663,
                        "139": 0.04793235669516425,
                        "140": -0.2017551741741148,
                        "141": 0.099052588047071,
                        "142": -0.0815749930141485,
                        "143": -0.16609822172824093,
                        "144": -0.19646215888062799,
                        "145": -0.007810122714098092,
                        "146": -0.037019049201746194,
                        "147": -0.0006697010658702996,
                        "148": -0.04662941536129009,
                        "149": -0.034596777709666134,
                        "150": -0.308434650783766,
                        "151": -0.01348500418942859,
                        "152": -0.08127410321840887,
                        "153": -0.0740267795669307,
                        "154": 0.16450981230223732,
                        "155": 0.08008218905059813,
                        "156": -0.32791689900449844,
                        "157": 0.20206912294581292,
                        "158": -0.3209134053178306,
                        "159": -0.17118278286488917,
                        "160": 0.16891182609917407,
                        "161": -0.03192779678252696,
                        "162": -0.12154195063048995,
                        "163": 0.02097637963302688,
                        "164": 0.01819388476752923,
                        "165": 0.07778024321001109,
                        "166": -0.012465060592735534,
                        "167": 0.05048153579925068,
                        "168": 0.13555602127165212,
                        "169": -0.03605253117497466,
                        "170": 0.030811689707442594,
                        "171": 0.15491958997725572,
                        "172": -0.05970826900735548,
                        "173": 0.06751450904927553,
                        "174": 0.1490171555923401,
                        "175": 0.030806971949031953,
                        "176": -0.057455829206559596,
                        "177": 0.020066831800234223,
                        "178": 0.03236627688525435,
                        "179": -0.03441370259720935,
                        "180": 0.07804598869076958,
                        "181": 0.06994447430065089,
                        "182": -0.039330531854233006,
                        "183": -0.06714393743150483,
                        "184": 0.18457155820574442,
                        "185": -0.23997610970431554,
                        "186": -0.024113690611868646,
                        "187": -0.05868502188953027,
                        "188": -0.07274884091894875,
                        "189": 0.061370732674390846,
                        "190": -0.07279571813650045,
                        "191": 0.07719943292015431,
                        "192": 0.24052856059393896,
                        "193": -0.14387453917598914,
                        "194": -0.20948569932028857,
                        "195": -0.03506478879201242,
                        "196": -0.07700478379124132,
                        "197": -0.004363849151161003,
                        "198": -0.018897017545061952,
                        "199": 0.16943871984844525
                    }
                },
                {
                    "sx": 5,
                    "sy": 5,
                    "depth": 8,
                    "w": {
                        "0": -0.012445180464993226,
                        "1": -0.04661856401228184,
                        "2": 0.053867639830129876,
                        "3": -0.007339309198729063,
                        "4": -0.04021937696494669,
                        "5": -0.07195391618536982,
                        "6": -0.009883261807967133,
                        "7": -0.04133971410669521,
                        "8": -0.07874643117905492,
                        "9": 0.019574124979111464,
                        "10": 0.06177531540625036,
                        "11": -0.05119988227741311,
                        "12": 0.12620325126100582,
                        "13": -0.009941162888452544,
                        "14": 0.08114508560407836,
                        "15": -0.00597996485303,
                        "16": 0.07565663449595156,
                        "17": 0.03700523763996338,
                        "18": -0.04647418615708051,
                        "19": -0.15733702428553767,
                        "20": -0.016086012513676598,
                        "21": -0.0715337054743015,
                        "22": 0.0269858617025099,
                        "23": 0.12460681943528612,
                        "24": -0.1947065941933423,
                        "25": -0.041760290076858636,
                        "26": 0.14882663675057653,
                        "27": -0.0031699347385752766,
                        "28": -0.09160403002210046,
                        "29": 0.04123541278593973,
                        "30": -0.04204307651786758,
                        "31": -0.05278795229145568,
                        "32": -0.04807952960920637,
                        "33": -0.11876494670118669,
                        "34": 0.09603123465246617,
                        "35": -0.16666064582811502,
                        "36": 0.026757637728502454,
                        "37": 0.04718636670020036,
                        "38": -0.08174767080288332,
                        "39": -0.1307830462554905,
                        "40": -0.11185958893023719,
                        "41": 0.026239904441187532,
                        "42": 0.054331159219746544,
                        "43": -0.1308166303255276,
                        "44": -0.1519076608400358,
                        "45": 0.05586235502649738,
                        "46": -0.007829849353499854,
                        "47": -0.09328520178836754,
                        "48": -0.038214055050501544,
                        "49": -0.008716233029543148,
                        "50": 0.03273155337000927,
                        "51": -0.09712833580523432,
                        "52": -0.10452025132267043,
                        "53": 0.0721487943669957,
                        "54": 0.1280767766578534,
                        "55": -0.056097995202100015,
                        "56": -0.11179720669461632,
                        "57": 0.09599320854178596,
                        "58": -0.047674015031921785,
                        "59": 0.038419077565983145,
                        "60": -0.05950470443976668,
                        "61": -0.025776509176975423,
                        "62": -0.06705784260453136,
                        "63": -0.12588274995742318,
                        "64": 0.010603420939953425,
                        "65": 0.010419001089569599,
                        "66": -0.07566806559835268,
                        "67": 0.028538003428688452,
                        "68": -0.0979471339335856,
                        "69": 0.040782215926580226,
                        "70": -0.09237709769954791,
                        "71": -0.1247517580386338,
                        "72": 0.029389110377897893,
                        "73": -0.16941689990333195,
                        "74": 0.1328550046367654,
                        "75": -0.08708233975477925,
                        "76": 0.06298657398013467,
                        "77": 0.00022098486726804863,
                        "78": 0.04407579572398964,
                        "79": -0.10469104215794058,
                        "80": -0.10698329662101393,
                        "81": -0.11033307429827516,
                        "82": 0.04011712124867896,
                        "83": 0.08587938144863426,
                        "84": -0.007263358431988107,
                        "85": -0.041020518908661416,
                        "86": -0.02184123402840449,
                        "87": -0.02085736684046389,
                        "88": -0.1245267425119848,
                        "89": 0.022262276174347475,
                        "90": -0.039618897095662756,
                        "91": -0.11997248621297305,
                        "92": -0.11699073256382884,
                        "93": 0.04681442252305014,
                        "94": 0.041014310431625796,
                        "95": 0.010380436232724905,
                        "96": -0.029007666686195692,
                        "97": -0.006688035764683042,
                        "98": -0.040538744105866505,
                        "99": -0.10369304923306225,
                        "100": -0.028031418266366577,
                        "101": -0.021360662287510566,
                        "102": -0.05400346503704322,
                        "103": -0.11961309984032299,
                        "104": 0.06067804194608399,
                        "105": -0.1118374400416326,
                        "106": 0.05316818372581718,
                        "107": 0.07210727369055614,
                        "108": -0.16594829001331798,
                        "109": 0.023202597499241157,
                        "110": -0.12452936991433923,
                        "111": -0.16693327497128177,
                        "112": 0.04072724523800134,
                        "113": -0.03121962701788957,
                        "114": 0.18493731247917733,
                        "115": 0.051953625690263024,
                        "116": 0.10964047107700868,
                        "117": -0.17010693134493415,
                        "118": 0.32511797306030177,
                        "119": -0.06390191125188645,
                        "120": -0.047868085710383756,
                        "121": -0.05675303230066217,
                        "122": -0.095926335183833,
                        "123": -0.12407005865218172,
                        "124": -0.054267173401903616,
                        "125": 0.1419343923832957,
                        "126": -0.056640864596575094,
                        "127": -0.0477211077162815,
                        "128": 0.025045288347985195,
                        "129": -0.05234695244317921,
                        "130": -0.01012648706717087,
                        "131": -0.022614753222452186,
                        "132": 0.058893430091068275,
                        "133": 0.11167158568001438,
                        "134": -0.07303160978060445,
                        "135": -0.039401338683421286,
                        "136": 0.0033696574981916796,
                        "137": 0.035498421733136776,
                        "138": -0.0659840705217567,
                        "139": 0.20562791212241535,
                        "140": -0.028675291921822693,
                        "141": 0.007406928150571066,
                        "142": 0.017034879795324302,
                        "143": -0.04157782120215464,
                        "144": -0.029748743900286437,
                        "145": -0.05821740261875938,
                        "146": -0.056319447047818244,
                        "147": 0.07251665802067779,
                        "148": -0.15924548663767366,
                        "149": 0.0077260598665002695,
                        "150": 0.04001652198070304,
                        "151": -0.09016840778500304,
                        "152": -0.015997675455044824,
                        "153": -0.1461976142504178,
                        "154": 0.10399548444764695,
                        "155": 0.07585914241134427,
                        "156": -0.01038094169870122,
                        "157": -0.009006335416729907,
                        "158": 0.06695152618700285,
                        "159": -0.03247375091123452,
                        "160": -0.18118065156300292,
                        "161": -0.18299019492113883,
                        "162": 0.07093779493669261,
                        "163": -0.10912398697128756,
                        "164": -0.04368155440944962,
                        "165": 0.023928431481277577,
                        "166": -0.14354403601896853,
                        "167": -0.03193774185972633,
                        "168": 0.1428560032577254,
                        "169": -0.1407669216736088,
                        "170": -0.032539783005442635,
                        "171": -0.07462772800546784,
                        "172": 0.020159794281400484,
                        "173": -0.029802826462746318,
                        "174": 0.21406164230497837,
                        "175": -0.0709727850149826,
                        "176": 0.14424798436389472,
                        "177": 0.20347286615591212,
                        "178": -0.2480984896865237,
                        "179": 0.012216671830866593,
                        "180": 0.0438369040901916,
                        "181": -0.05053100357953347,
                        "182": 0.18079476658763205,
                        "183": 0.14991606222078516,
                        "184": -0.10542375978917326,
                        "185": 0.07350621084999347,
                        "186": -0.20108043560753586,
                        "187": -0.044939290604718185,
                        "188": -0.04658256783717833,
                        "189": 0.2032369058575603,
                        "190": -0.09633955766366822,
                        "191": 0.08015042489685102,
                        "192": -0.12346619100922405,
                        "193": -0.12613699925158992,
                        "194": 0.10170482030818356,
                        "195": -0.019181781140238142,
                        "196": -0.1415535367708759,
                        "197": 0.1755630089039048,
                        "198": 0.02828698536671708,
                        "199": -0.06184533173746411
                    }
                },
                {
                    "sx": 5,
                    "sy": 5,
                    "depth": 8,
                    "w": {
                        "0": 0.02421836730907383,
                        "1": 0.1598568895531367,
                        "2": -0.029663558922425455,
                        "3": 0.09366221023237967,
                        "4": 0.027365730496509047,
                        "5": -0.032343668491026656,
                        "6": 0.1718316150755299,
                        "7": -0.00974842032249734,
                        "8": -0.0345900696082805,
                        "9": -0.03049348198968789,
                        "10": 0.14713897092082634,
                        "11": 0.02979506330723397,
                        "12": 0.05905981518451609,
                        "13": 0.19179852871705022,
                        "14": -0.02482437582169854,
                        "15": 0.110159323287237,
                        "16": -0.13161171085301918,
                        "17": -0.0635629083309138,
                        "18": -0.1024429429323204,
                        "19": 0.0417024679895964,
                        "20": -0.16216436231794065,
                        "21": 0.07843587455610641,
                        "22": -0.2088882875978663,
                        "23": 0.0658808466986296,
                        "24": -0.04581007654298102,
                        "25": -0.25771518653749415,
                        "26": 0.04509422525854297,
                        "27": 0.07321718343889547,
                        "28": -0.016252232705231403,
                        "29": 0.05377151510027695,
                        "30": -0.13152090216137846,
                        "31": -0.033942913907389405,
                        "32": -0.05279346258071529,
                        "33": -0.11174711513898875,
                        "34": 0.052948354805079104,
                        "35": -0.039801064641846476,
                        "36": 0.03588386271715632,
                        "37": -0.0018469815345714818,
                        "38": -0.026244202384273198,
                        "39": -0.06636739349374847,
                        "40": -0.21547732265392391,
                        "41": 0.009714803254884044,
                        "42": -0.14240195564022373,
                        "43": 0.08985839387424488,
                        "44": 0.05664478528742765,
                        "45": -0.1348415186764145,
                        "46": 0.05007768679887692,
                        "47": -0.05247859622103688,
                        "48": 0.03951708398482051,
                        "49": 0.08631951155320025,
                        "50": -0.0993524219551988,
                        "51": -0.0021365546919905475,
                        "52": -0.0715286660475909,
                        "53": 0.06615895694763442,
                        "54": -0.1301732797350903,
                        "55": -0.08113413216999044,
                        "56": 0.037291329928814884,
                        "57": -0.10235513489675593,
                        "58": -0.13035253964502286,
                        "59": 0.03766669008263378,
                        "60": -0.1186327520122686,
                        "61": -0.03048525989790462,
                        "62": -0.09287217464784492,
                        "63": -0.1325456921327608,
                        "64": -0.033507419881341316,
                        "65": -0.1091835246965494,
                        "66": -0.040681993374989414,
                        "67": -0.12611399754705102,
                        "68": -0.13065659351691802,
                        "69": -0.0254687805493457,
                        "70": -0.08054398920563058,
                        "71": -0.008221069726328545,
                        "72": 0.046092954794323536,
                        "73": 0.06743307934255421,
                        "74": 0.006173618251603754,
                        "75": 0.10394331982677547,
                        "76": -0.049996714988649354,
                        "77": -0.04093562813355421,
                        "78": -0.051802421985841764,
                        "79": 0.02856015363501775,
                        "80": -0.14267598840269566,
                        "81": -0.09735211120358424,
                        "82": 0.03878504972907818,
                        "83": -0.009284507739129606,
                        "84": -0.13617832603653074,
                        "85": 0.09458637683673672,
                        "86": -0.05584631224645249,
                        "87": -0.0374099264367209,
                        "88": -0.1435311827052568,
                        "89": -0.023384416294960804,
                        "90": -0.17967647727721636,
                        "91": -0.1727554329885894,
                        "92": -0.16146970479389625,
                        "93": -0.03210910117637541,
                        "94": -0.00426333169893495,
                        "95": -0.05956529835716434,
                        "96": -0.022593784538095577,
                        "97": -0.13424853064568076,
                        "98": -0.10144664206061393,
                        "99": -0.13377178587398625,
                        "100": -0.08492326632772074,
                        "101": -0.02715941219286761,
                        "102": -0.09085360448135435,
                        "103": -0.06852402297918261,
                        "104": -0.07299537877821408,
                        "105": -0.15848612798238368,
                        "106": -0.20201074461408905,
                        "107": -0.03861186342153607,
                        "108": -0.017915883468219502,
                        "109": 0.05347410915752897,
                        "110": 0.008420006064707091,
                        "111": -0.0353477231504771,
                        "112": -0.09835112323839303,
                        "113": -0.09496488745656603,
                        "114": -0.1166617021197442,
                        "115": 0.017449414443475784,
                        "116": -0.027472983408295102,
                        "117": 0.02752967318525741,
                        "118": -0.09054140288010629,
                        "119": 0.00007350544815790192,
                        "120": -0.09561633592531184,
                        "121": -0.02303343525521559,
                        "122": -0.20274123310907777,
                        "123": -0.031582886952894074,
                        "124": -0.008163700917569263,
                        "125": -0.17468032307690293,
                        "126": -0.07682446595618242,
                        "127": -0.03858559632311144,
                        "128": 0.11104642517373373,
                        "129": -0.07501353429004089,
                        "130": -0.2196399175645721,
                        "131": -0.17098135155500002,
                        "132": -0.034474528386120445,
                        "133": 0.08108489415992856,
                        "134": 0.045649042624175046,
                        "135": -0.02522797087855868,
                        "136": 0.10399781263244182,
                        "137": -0.09452583462317471,
                        "138": -0.228133571011896,
                        "139": -0.2338741813181964,
                        "140": 0.0028614360207802982,
                        "141": -0.17032106130369495,
                        "142": -0.0007949121207506322,
                        "143": 0.05826063352629375,
                        "144": -0.047164914316630446,
                        "145": -0.09573133190697845,
                        "146": -0.22547093988118616,
                        "147": -0.09947305254449833,
                        "148": 0.043105524426203905,
                        "149": -0.07501770369122657,
                        "150": -0.10056330524812272,
                        "151": 0.05490785337960152,
                        "152": 0.07116270258017585,
                        "153": -0.12473708739732503,
                        "154": -0.29162394649844436,
                        "155": -0.04859162140786784,
                        "156": -0.02346706531069505,
                        "157": -0.16547896010093435,
                        "158": -0.11436148094455849,
                        "159": 0.1752502770161421,
                        "160": 0.17368703479716255,
                        "161": 0.10640175478451484,
                        "162": -0.13216593344985086,
                        "163": -0.11798007002586594,
                        "164": 0.03670541192306789,
                        "165": -0.06583696052218647,
                        "166": 0.022804574803276377,
                        "167": 0.033508191056452585,
                        "168": 0.11266956555092288,
                        "169": 0.1587976795124956,
                        "170": -0.0778074001682013,
                        "171": -0.12685636691430827,
                        "172": 0.14339615704248784,
                        "173": -0.03268017513397867,
                        "174": 0.19750696852215713,
                        "175": 0.0655286671199104,
                        "176": 0.1461146618735503,
                        "177": -0.11196753965629884,
                        "178": 0.06142211749421266,
                        "179": -0.27725335434790804,
                        "180": 0.10993127898791574,
                        "181": -0.2539746663363798,
                        "182": 0.2657030165577457,
                        "183": -0.013824709702257462,
                        "184": 0.12849258247645776,
                        "185": -0.14971311072779447,
                        "186": 0.15550451353365854,
                        "187": -0.17845770743866177,
                        "188": 0.17904978433123206,
                        "189": -0.1645016616767507,
                        "190": 0.10155247780053023,
                        "191": -0.027548807353943022,
                        "192": 0.1694389806652807,
                        "193": -0.11416116758384316,
                        "194": 0.21789997481087692,
                        "195": -0.2387109785536515,
                        "196": 0.2307839656891791,
                        "197": -0.17134349880890354,
                        "198": 0.07737814647995081,
                        "199": -0.016835166604930587
                    }
                },
                {
                    "sx": 5,
                    "sy": 5,
                    "depth": 8,
                    "w": {
                        "0": 0.07772955368876275,
                        "1": 0.1961545120191823,
                        "2": -0.4216781741608786,
                        "3": -0.11070880599534892,
                        "4": 0.007456606822482592,
                        "5": -0.12489607998157318,
                        "6": 0.17151023529430887,
                        "7": 0.12565534091465044,
                        "8": -0.13894635991679008,
                        "9": 0.0395720785551264,
                        "10": -0.1638179331630678,
                        "11": -0.035954339506677514,
                        "12": -0.1256139941723622,
                        "13": 0.010668750521455325,
                        "14": 0.06868229279024655,
                        "15": -0.10279577210449248,
                        "16": -0.07576371660361923,
                        "17": 0.0034454898914317864,
                        "18": -0.21478424747799213,
                        "19": 0.035592706915119725,
                        "20": -0.07695781460458116,
                        "21": -0.14031383985305185,
                        "22": -0.04064239920972997,
                        "23": -0.1274316531834224,
                        "24": 0.023295553363432316,
                        "25": -0.06604765801712305,
                        "26": 0.03347514736865909,
                        "27": -0.035460611027038735,
                        "28": -0.09287468055499702,
                        "29": -0.062296589024037737,
                        "30": -0.18023320961282235,
                        "31": -0.06471611749122161,
                        "32": -0.0790626040760852,
                        "33": 0.0033308332768417588,
                        "34": 0.1056914440829954,
                        "35": -0.055022411317442996,
                        "36": 0.12584875192308076,
                        "37": -0.13975739036129073,
                        "38": 0.0598296375596897,
                        "39": -0.07781114706190417,
                        "40": 0.13568422371985864,
                        "41": 0.032027485904378,
                        "42": -0.09799088112453902,
                        "43": -0.19611881486375793,
                        "44": 0.19255913545660233,
                        "45": -0.3957122889372201,
                        "46": 0.13192501616288593,
                        "47": 0.09773651437015131,
                        "48": 0.21735525548235957,
                        "49": -0.09223410579053769,
                        "50": -0.15837865469305773,
                        "51": 0.02355696725211083,
                        "52": 0.026589671361596633,
                        "53": -0.2163942880606965,
                        "54": 0.03853798478193441,
                        "55": 0.05576336527550485,
                        "56": 0.13396794752819616,
                        "57": -0.006648323408829894,
                        "58": -0.2233069004667306,
                        "59": 0.1015225245042745,
                        "60": -0.07596330498005158,
                        "61": -0.09417961391590837,
                        "62": -0.048410715564340984,
                        "63": 0.09295906231188523,
                        "64": 0.0886927362446002,
                        "65": -0.02319731362231743,
                        "66": -0.08750481436868185,
                        "67": 0.16036274848230841,
                        "68": -0.06702543388112712,
                        "69": 0.03921499361804828,
                        "70": -0.04968078594875874,
                        "71": 0.014520265844767233,
                        "72": -0.07845232429612578,
                        "73": 0.015447870337560397,
                        "74": 0.047036322507015574,
                        "75": 0.16393299501022882,
                        "76": 0.028913519142775658,
                        "77": 0.029761638024317392,
                        "78": -0.07008491864457504,
                        "79": 0.0440332688780191,
                        "80": 0.1311915129932722,
                        "81": -0.054135063819332335,
                        "82": 0.13997612168060722,
                        "83": -0.2602005733062256,
                        "84": 0.09005119157878698,
                        "85": -0.21663910668066821,
                        "86": 0.11791862566013434,
                        "87": 0.0022414463289552895,
                        "88": 0.04843435587548121,
                        "89": -0.07368927328946254,
                        "90": 0.21853962580515507,
                        "91": -0.300391077652522,
                        "92": 0.22296156382812424,
                        "93": -0.24490749269259574,
                        "94": 0.04677255889553606,
                        "95": 0.1831288286563636,
                        "96": 0.11366551981073957,
                        "97": -0.013758468972380257,
                        "98": -0.16352321326810004,
                        "99": -0.2204414870434578,
                        "100": 0.030758034820763013,
                        "101": -0.2929310137717864,
                        "102": -0.012588338424483423,
                        "103": 0.1368698256111839,
                        "104": 0.05686221327540121,
                        "105": -0.07949851204753107,
                        "106": -0.15318821620077192,
                        "107": -0.06498952181649574,
                        "108": -0.004653516351365709,
                        "109": -0.11798438296323505,
                        "110": -0.024667494499795422,
                        "111": 0.08769956766973029,
                        "112": -0.06475965599397752,
                        "113": -0.05654498998112181,
                        "114": -0.1293417710985825,
                        "115": 0.06580784647528434,
                        "116": 0.08266207615381803,
                        "117": 0.06019702465654293,
                        "118": -0.12339012999798898,
                        "119": -0.029894123283591225,
                        "120": -0.11104673317228841,
                        "121": -0.05626237730814,
                        "122": 0.13142425226934076,
                        "123": -0.003545243683938391,
                        "124": -0.04289367264756156,
                        "125": -0.0509991633293543,
                        "126": -0.005265774755823719,
                        "127": -0.18777335081709337,
                        "128": -0.19240014065117358,
                        "129": 0.018618853470529245,
                        "130": 0.12710998897002848,
                        "131": -0.1396487349812185,
                        "132": 0.05664957356403704,
                        "133": -0.16519433920065835,
                        "134": 0.07389463149757722,
                        "135": -0.040399528073104374,
                        "136": -0.17295097852861485,
                        "137": -0.06772524692007524,
                        "138": 0.21201078860102865,
                        "139": 0.09505578786646005,
                        "140": 0.13771980252803104,
                        "141": -0.13785106208559417,
                        "142": 0.07187685003761225,
                        "143": -0.02003609438806138,
                        "144": 0.11037236172021571,
                        "145": 0.022040837554154296,
                        "146": -0.04602243227756859,
                        "147": -0.08607606328788783,
                        "148": 0.2090531748003463,
                        "149": -0.1534500070082806,
                        "150": -0.026297816059526642,
                        "151": 0.13197733796183714,
                        "152": 0.1179951986376393,
                        "153": -0.04200417664286007,
                        "154": -0.1227958181743233,
                        "155": 0.1673262381219265,
                        "156": 0.06659490669136445,
                        "157": 0.026267478530697667,
                        "158": -0.06644584723445116,
                        "159": 0.13647141370796131,
                        "160": -0.14811691144364755,
                        "161": -0.1714993855905448,
                        "162": -0.23023613580887928,
                        "163": -0.03470205658579964,
                        "164": -0.09653337212725724,
                        "165": -0.2562428754611687,
                        "166": 0.09775059521032724,
                        "167": -0.13988498352289985,
                        "168": -0.16521203113155455,
                        "169": 0.01482945184578983,
                        "170": -0.09631868707460983,
                        "171": 0.05963723185357335,
                        "172": -0.12494027294024332,
                        "173": -0.18443813251323293,
                        "174": 0.051791198029026084,
                        "175": -0.10745122179526839,
                        "176": -0.04669177011126248,
                        "177": -0.000844835329948836,
                        "178": 0.0362493522411223,
                        "179": -0.11228979778965358,
                        "180": 0.12835630923870667,
                        "181": -0.03536240956950875,
                        "182": 0.10247324537910503,
                        "183": -0.15509855168761622,
                        "184": -0.04592984949495859,
                        "185": -0.08130240796994016,
                        "186": 0.11943769172682694,
                        "187": -0.09172896973108552,
                        "188": 0.0524510968671502,
                        "189": -0.0498838828045612,
                        "190": -0.011950061105413622,
                        "191": -0.0609150561314956,
                        "192": -0.05708796958245194,
                        "193": 0.09175193275842566,
                        "194": 0.0023346238059577026,
                        "195": -0.025117417366097267,
                        "196": 0.1408884744533383,
                        "197": -0.060247723214153295,
                        "198": -0.007470115719587367,
                        "199": 0.016651137776295646
                    }
                },
                {
                    "sx": 5,
                    "sy": 5,
                    "depth": 8,
                    "w": {
                        "0": -0.10585557334325141,
                        "1": 0.010737170948156472,
                        "2": -0.17561942733356115,
                        "3": -0.13812442691771468,
                        "4": -0.04597153400867639,
                        "5": -0.0034834371758835974,
                        "6": 0.07743944332282787,
                        "7": -0.01942592706811223,
                        "8": -0.12818545283365618,
                        "9": -0.03946004004993915,
                        "10": -0.0970635124591688,
                        "11": 0.05494117467913899,
                        "12": -0.008049329378387095,
                        "13": -0.02270157721607728,
                        "14": -0.004198627993237571,
                        "15": 0.07110066674375116,
                        "16": -0.12990159222547723,
                        "17": -0.1420684191414618,
                        "18": 0.03176285186381554,
                        "19": 0.03449035481739067,
                        "20": -0.016927747144400106,
                        "21": -0.08099153882020368,
                        "22": -0.20830052891376188,
                        "23": 0.01901486910239031,
                        "24": -0.3845045189915812,
                        "25": -0.27191727139277105,
                        "26": 0.053351142106688516,
                        "27": 0.027566589128648556,
                        "28": -0.22871525215356595,
                        "29": 0.05850391981524756,
                        "30": -0.47730406530812025,
                        "31": -0.2202100871932454,
                        "32": -0.08500037824730079,
                        "33": -0.20584807980707479,
                        "34": -0.0401399942073329,
                        "35": 0.03292658634899197,
                        "36": -0.2047945344848196,
                        "37": 0.08726502151816232,
                        "38": -0.21799167509375345,
                        "39": -0.16493965635983773,
                        "40": -0.14857029412229897,
                        "41": 0.05231058240813251,
                        "42": 0.19158119927210493,
                        "43": 0.0863201602748044,
                        "44": -0.02927037065932143,
                        "45": 0.0029262584795702417,
                        "46": -0.10619136147405142,
                        "47": 0.04660538195723026,
                        "48": -0.041479956847960645,
                        "49": -0.04705300331188781,
                        "50": 0.07929316510800814,
                        "51": 0.03576551926463645,
                        "52": 0.014586348579533177,
                        "53": -0.016867114460501646,
                        "54": -0.02981014590400137,
                        "55": -0.1281776023489297,
                        "56": 0.26702512896059044,
                        "57": -0.07206945610192993,
                        "58": -0.05459965246198463,
                        "59": 0.012075617362757238,
                        "60": -0.058600388913174206,
                        "61": -0.13314949342940902,
                        "62": -0.06699779821560313,
                        "63": 0.154398620210398,
                        "64": 0.11931325570919817,
                        "65": 0.004260689886732471,
                        "66": -0.10896562227716593,
                        "67": 0.15642853485576813,
                        "68": 0.039351645402771314,
                        "69": -0.031901686106282724,
                        "70": -0.04889283985353439,
                        "71": 0.054414825919990334,
                        "72": 0.21463242654842307,
                        "73": 0.04824266899785635,
                        "74": -0.09024891828043655,
                        "75": 0.018859283836960384,
                        "76": 0.04741391112479246,
                        "77": 0.029377897279640144,
                        "78": 0.029473354693384735,
                        "79": 0.16236927726066838,
                        "80": 0.2211838358624133,
                        "81": 0.07229772383997948,
                        "82": -0.13336577350273424,
                        "83": 0.001696374716989683,
                        "84": 0.09650608035701512,
                        "85": -0.10763116523465407,
                        "86": 0.05914709664586276,
                        "87": 0.05775981141629908,
                        "88": 0.11657829028535008,
                        "89": 0.07956661390058084,
                        "90": -0.0605814254544755,
                        "91": 0.029779332236537122,
                        "92": 0.21243838959508884,
                        "93": 0.00798092062958856,
                        "94": 0.09029252249867388,
                        "95": 0.21103612949189407,
                        "96": 0.2682528569378861,
                        "97": 0.05245225114698547,
                        "98": 0.06666032122190582,
                        "99": 0.041279522204948654,
                        "100": 0.1807138828052698,
                        "101": -0.11807232033714025,
                        "102": 0.2088584067844752,
                        "103": 0.18564268180727322,
                        "104": 0.25854598240233395,
                        "105": 0.07780590248817695,
                        "106": 0.010914407833821669,
                        "107": -0.17756823951106218,
                        "108": 0.16225107781535208,
                        "109": -0.09507033061305874,
                        "110": 0.24774706506114258,
                        "111": 0.008672278818020239,
                        "112": 0.32974250765014496,
                        "113": 0.16019019537884618,
                        "114": -0.08875705359695413,
                        "115": -0.017088580494226718,
                        "116": 0.0946832539345709,
                        "117": -0.0575418080095348,
                        "118": 0.22750084428016717,
                        "119": 0.06378234228018176,
                        "120": -0.11609067504454003,
                        "121": -0.010342046480945047,
                        "122": 0.11516955762663941,
                        "123": -0.024064952294576947,
                        "124": 0.07033810480960787,
                        "125": -0.07506748378374517,
                        "126": -0.018308070602611227,
                        "127": 0.032342944062632974,
                        "128": 0.0006051742899319372,
                        "129": -0.0174473702638549,
                        "130": 0.25179195845069324,
                        "131": 0.04897698231637771,
                        "132": 0.054175840531998636,
                        "133": -0.09789088908204352,
                        "134": 0.15118428673057122,
                        "135": -0.026241365132600634,
                        "136": -0.05598873403237537,
                        "137": -0.12307471300708081,
                        "138": 0.2767260288998331,
                        "139": -0.07519936617566615,
                        "140": -0.06439857309888787,
                        "141": 0.08529686124092696,
                        "142": 0.18208033170820684,
                        "143": -0.01516656652814379,
                        "144": -0.31941391621198895,
                        "145": -0.01639962288913683,
                        "146": 0.1267777823280187,
                        "147": -0.21105413513796142,
                        "148": -0.15788743886427992,
                        "149": 0.07575103248422833,
                        "150": 0.01800377736379725,
                        "151": -0.22462603988943597,
                        "152": -0.18311360983051161,
                        "153": 0.04004082906882969,
                        "154": 0.07158832966955589,
                        "155": -0.1139197163316467,
                        "156": -0.12986024134868135,
                        "157": -0.05529202854854472,
                        "158": 0.030895567890742496,
                        "159": -0.11266347679708155,
                        "160": -0.07456773969293826,
                        "161": -0.012793774465901474,
                        "162": -0.02466476857846327,
                        "163": 0.03301001379526333,
                        "164": -0.1337327125667342,
                        "165": 0.1855756912558065,
                        "166": -0.1958680789868274,
                        "167": -0.025540998000966493,
                        "168": -0.21107224771308233,
                        "169": -0.016089027587993084,
                        "170": 0.1309885279748569,
                        "171": -0.02461335022947596,
                        "172": -0.06826034019990575,
                        "173": 0.10024896119188433,
                        "174": -0.21668410321999118,
                        "175": -0.1249780191048623,
                        "176": -0.13386949718390456,
                        "177": -0.28868436408473525,
                        "178": -0.05873250657634993,
                        "179": -0.05629647851377777,
                        "180": -0.05673182595343277,
                        "181": 0.15138212796069847,
                        "182": -0.22758328197267547,
                        "183": -0.19450766465639388,
                        "184": -0.19685578378011556,
                        "185": -0.06980316865883018,
                        "186": -0.18774156173293507,
                        "187": -0.2082030316809516,
                        "188": -0.1822735564013801,
                        "189": 0.15732533209101063,
                        "190": -0.1630673516213701,
                        "191": -0.12534437869393902,
                        "192": -0.0009046671939126941,
                        "193": -0.0749510474617371,
                        "194": -0.18126527876105994,
                        "195": -0.1107970551294303,
                        "196": -0.09739844763286737,
                        "197": 0.04488612937711861,
                        "198": 0.04243622385072672,
                        "199": 0.014779259753873671
                    }
                },
                {
                    "sx": 5,
                    "sy": 5,
                    "depth": 8,
                    "w": {
                        "0": -0.05616217172436723,
                        "1": 0.06174664693054717,
                        "2": 0.10939528508931723,
                        "3": -0.0982315067803581,
                        "4": 0.11386448751461198,
                        "5": 0.019673382686812946,
                        "6": -0.003174863945537038,
                        "7": -0.08305658075942302,
                        "8": 0.09401522390907915,
                        "9": -0.018147229175254194,
                        "10": -0.06947036472999345,
                        "11": 0.12617348792105454,
                        "12": -0.1139593921581982,
                        "13": 0.03903755660089185,
                        "14": -0.14702575568403536,
                        "15": 0.028734927747621698,
                        "16": -0.10852680640228132,
                        "17": -0.05064045417001811,
                        "18": -0.10587791309155979,
                        "19": -0.010955772154003484,
                        "20": -0.1240922982526384,
                        "21": 0.03329153347832944,
                        "22": -0.11624481907006809,
                        "23": -0.06670846490392454,
                        "24": -0.026465995954012254,
                        "25": 0.040690171252052015,
                        "26": -0.10320212930642675,
                        "27": -0.10808087176140733,
                        "28": -0.24176920324843798,
                        "29": 0.0323633295735949,
                        "30": -0.07891345212365287,
                        "31": -0.031659089129098636,
                        "32": 0.16646094640412723,
                        "33": -0.20834908193778648,
                        "34": 0.0014583629446787514,
                        "35": -0.002423506638601452,
